tree
version=v3
num_class=1
num_tree_per_iteration=1
label_index=0
max_feature_idx=53
objective=binary sigmoid:1
feature_names=session_position session_length context_switch no_pause_before_play short_pause_before_play long_pause_before_play hist_user_behavior_n_seekfwd hist_user_behavior_n_seekback hist_user_behavior_is_shuffle hour_of_day premium context_type_editorial_playlist context_type_user_collection context_type_radio context_type_personalized_playlist context_type_catalog context_type_charts hist_user_behavior_reason_start_trackdone hist_user_behavior_reason_start_fwdbtn hist_user_behavior_reason_start_backbtn hist_user_behavior_reason_start_clickrow hist_user_behavior_reason_start_appload hist_user_behavior_reason_start_playbtn hist_user_behavior_reason_start_remote hist_user_behavior_reason_start_trackerror hist_user_behavior_reason_start_endplay hist_user_behavior_reason_end_trackdone hist_user_behavior_reason_end_fwdbtn hist_user_behavior_reason_end_backbtn hist_user_behavior_reason_end_endplay hist_user_behavior_reason_end_logout hist_user_behavior_reason_end_remote duration release_year us_popularity_estimate acousticness beat_strength bounciness danceability dyn_range_mean energy flatness instrumentalness key liveness loudness mechanism mode organism speechiness tempo time_signature valence day_of_week
feature_infos=[1:20] [10:20] [0:1] [0:1] [0:1] [0:1] [0:60] [0:73] [0:1] [0:23] [0:1] [0:1] [0:1] [0:1] [0:1] [0:1] [0:1] [0:1] [0:1] [0:1] [0:1] [0:1] [0:1] [0:1] [0:1] none [0:1] [0:1] [0:1] [0:1] [0:1] [0:1] [30.01333045959473:1787.760986328125] [1950:2018] [90.018899501126285:99.99999678325527] [0:0.99579644203186035] [0:0.99041891098022461] [0:0.97259032726287842] [0:0.98495167493820202] [0:32.342781066894531] [0:0.99921464920043945] [0:1.1032134294509888] [0:0.99927026033401478] [0:11] [0:0.99505966901779164] [-60:0.52499997615814209] [0:1] [0:1] [0:0.96234977245330799] [0:0.96060097217559803] [0:217.22799682617188] [0:5] [0:0.99998998641967762] [0:6]
tree_sizes=3469 3515 3519 3511 3505 3505 3501 3499 3516 3504 3510 3486 3524 3518 3515 3519 3514 3522 3499 3529

Tree=0
num_leaves=31
num_cat=0
split_feature=26 17 29 20 7 28 6 20 18 27 12 3 2 6 2 6 29 3 11 15 5 28 7 1 9 12 50 15 2 7
split_gain=26569.4 10301.5 3691.95 1393.64 696.295 414.035 350.336 256.588 200.3 101.801 75.1686 72.5331 64.4354 65.246 37.7393 34.0846 23.661 23.3866 22.5519 22.494 19.4917 17.3128 118.935 14.5932 14.0622 13.4632 12.4637 12.3206 12.3933 12.0811
threshold=1.0000000180025095e-35 1.0000000180025095e-35 1.0000000180025095e-35 1.0000000180025095e-35 1.0000000180025095e-35 1.0000000180025095e-35 1.0000000180025095e-35 1.0000000180025095e-35 1.0000000180025095e-35 1.0000000180025095e-35 1.0000000180025095e-35 1.0000000180025095e-35 1.0000000180025095e-35 1.0000000180025095e-35 1.0000000180025095e-35 1.5000000000000002 1.0000000180025095e-35 1.0000000180025095e-35 1.0000000180025095e-35 1.0000000180025095e-35 1.0000000180025095e-35 1.0000000180025095e-35 1.0000000180025095e-35 12.500000000000002 1.5000000000000002 1.0000000180025095e-35 137.9934997558594 1.0000000180025095e-35 1.0000000180025095e-35 1.5000000000000002
decision_type=2 2 2 2 2 2 2 2 2 2 2 2 2 2 2 2 2 2 2 2 2 2 2 2 2 2 2 2 2 2
left_child=1 2 3 4 5 6 8 20 17 -10 -11 27 13 18 -5 -8 21 -1 -13 -16 -4 25 -23 -20 -6 -3 -25 28 -9 -26
right_child=-2 16 7 14 24 -7 15 11 9 10 -12 12 -14 -15 19 -17 -18 -19 23 -21 -22 22 -24 26 29 -27 -28 -29 -30 -31
leaf_value=-0.30774962274535855 -0.36504263814308263 -0.34947819390517093 -0.34531129166717245 -0.33850344718202258 -0.29541860658307029 -0.24393241262906273 -0.30032976346217449 -0.31531697130594966 -0.33446941280482573 -0.26504434696489254 -0.2583428299940555 -0.29445876777660351 -0.32238754307450013 -0.34603296405183004 -0.30882442849626029 -0.33402387477516032 -0.35454107252195005 -0.28513543958524873 -0.36008784951058731 -0.33430845927578429 -0.32873464348720571 -0.29522414806408459 -0.35007695270556666 -0.32248519495602879 -0.32995069095696611 -0.34365115964834175 -0.29143043913914629 -0.33705353337688515 -0.33834447045779809 -0.35508471951863857
leaf_weight=52.208494037389755 5861.5012978613377 869.49099415540695 319.59405228495598 161.7487455457449 9.0267022401094419 1012.2104755192995 136.86432315409184 76.361021652817726 17.565474629402161 3481.3794855773449 2655.3142481446266 326.91300004720688 174.43492166697979 26.592176869511604 94.17046120762825 33.667159706354141 348.62587840855122 194.44004555046558 5.8551582098007193 46.597300752997398 79.776530608534813 45.865405976772308 158.57720151543617 28.787861198186874 101.24544404447079 605.27697993814945 19.517194032669067 84.167899265885353 29.031826123595238 20.737018659710884
leaf_count=214 24026 3564 1310 663 37 4149 561 313 72 14270 10884 1340 715 109 386 138 1429 797 24 191 327 188 650 118 415 2481 80 345 119 85
internal_value=-0.31328 -0.286229 -0.272722 -0.265454 -0.262978 -0.261793 -0.264544 -0.32248 -0.263413 -0.262351 -0.262145 -0.312377 -0.307129 -0.3006 -0.328618 -0.306982 -0.347429 -0.289922 -0.297429 -0.31726 -0.342 -0.345952 -0.337771 -0.315359 -0.33155 -0.347087 -0.309938 -0.328495 -0.32166 -0.334223
internal_weight=0 11216 9188.21 8017.18 7714.66 7583.65 6571.44 1171.03 6400.91 6154.26 6136.69 771.661 582.1 407.665 302.517 170.531 2027.84 246.649 381.073 140.768 399.371 1679.21 204.443 54.1602 131.009 1474.77 48.3051 189.561 105.393 121.982
internal_count=70000 45974 37662 32862 31622 31085 26936 4800 26237 25226 25154 3163 2386 1671 1240 699 8312 1011 1562 577 1637 6883 838 222 537 6045 198 777 432 500
shrinkage=1


Tree=1
num_leaves=31
num_cat=0
split_feature=26 17 29 20 7 28 6 20 18 27 12 3 2 6 2 6 29 3 15 11 5 28 7 1 9 12 32 40 50 7
split_gain=25112.1 9647.36 3433.94 1295.57 647.224 380.729 324.657 242.899 185.155 94.6591 69.2405 68.3392 60.5367 61.4453 35.7687 32.0812 22.6795 21.8162 21.2362 21.114 18.5764 16.5274 112.713 13.8382 13.2773 12.888 12.1274 11.8677 11.6985 11.5224
threshold=1.0000000180025095e-35 1.0000000180025095e-35 1.0000000180025095e-35 1.0000000180025095e-35 1.0000000180025095e-35 1.0000000180025095e-35 1.0000000180025095e-35 1.0000000180025095e-35 1.0000000180025095e-35 1.0000000180025095e-35 1.0000000180025095e-35 1.0000000180025095e-35 1.0000000180025095e-35 1.0000000180025095e-35 1.0000000180025095e-35 1.5000000000000002 1.0000000180025095e-35 1.0000000180025095e-35 1.0000000180025095e-35 1.0000000180025095e-35 1.0000000180025095e-35 1.0000000180025095e-35 1.0000000180025095e-35 12.500000000000002 1.5000000000000002 1.0000000180025095e-35 185.00662231445315 0.6128772795200349 137.9934997558594 1.5000000000000002
decision_type=2 2 2 2 2 2 2 2 2 2 2 2 2 2 2 2 2 2 2 2 2 2 2 2 2 2 2 2 2 2
left_child=1 2 3 4 5 6 8 20 17 -10 -11 26 13 19 -5 -8 21 -1 -16 -13 -4 25 -23 -21 -6 -3 -9 -14 -25 -26
right_child=-2 16 7 14 24 -7 15 11 9 10 -12 12 27 -15 18 -17 -18 -19 -20 23 -22 22 -24 28 29 -27 -28 -29 -30 -31
leaf_value=0.0053600043287950188 -0.050654638293677154 -0.035324547632768821 -0.031235469201921558 -0.024567968573868223 0.017278332643541484 0.066614501411269636 0.012536786270068892 -0.0018040300134741115 -0.020624656638277603 0.046460720932839886 0.052868737919360323 0.018204228882447323 -0.00048350848351227872 -0.031943221364665132 0.0043190662014632305 -0.020189478388422867 -0.040301319049402609 0.027184753743393363 -0.020467438149916473 -0.045764613547542798 -0.01502830414911013 0.017465936260411735 -0.035912636982190264 -0.0089420242199637692 -0.01621408780651425 -0.029608063598612021 -0.019238366952202726 -0.01617881465502884 0.021123800732851743 -0.04083627771147201
leaf_weight=52.252988040447235 5810.7608636021614 864.33880001306534 317.92803436517715 161.09112851321697 9.0510826259851438 1021.9718881398439 137.13437846302986 48.189120411872864 17.505825519561768 3505.5734032392502 2676.0997801423073 327.84203052520752 81.367420434951782 26.450286060571671 94.235221266746521 33.555308103561401 346.25454148650169 195.25438645482063 46.440302982926369 5.809632182121276 79.580570921301842 45.990595757961273 157.6212078332901 28.746125310659409 100.97670674324036 602.29222467541695 140.90826174616814 92.817326903343201 19.581280946731567 20.594000667333603
leaf_count=214 24026 3564 1310 663 37 4149 561 198 72 14270 10884 1340 334 109 386 138 1429 797 191 24 327 188 650 118 415 2481 579 381 80 85
internal_value=0 0.0261381 0.0391113 0.0460715 0.0484402 0.0495723 0.0469404 -0.00893884 0.0480216 0.0490375 0.0492348 0.000874829 0.00596088 0.0122761 -0.0149161 0.00610324 -0.0333137 0.0225772 -0.00386354 0.0153381 -0.0279908 -0.0318651 -0.0238558 -0.00201882 -0.0177753 -0.032977 -0.0147954 -0.00884702 0.00324004 -0.0203851
internal_weight=0 11257.5 9240.96 8071.74 7769.97 7639.35 6617.38 1169.22 6446.69 6199.18 6181.67 771.711 582.614 408.429 301.767 170.69 2016.5 247.507 140.676 381.979 397.509 1670.24 203.612 54.137 130.622 1466.63 189.097 174.185 48.3274 121.571
internal_count=70000 45974 37662 32862 31622 31085 26936 4800 26237 25226 25154 3163 2386 1671 1240 699 8312 1011 577 1562 1637 6883 838 222 537 6045 777 715 198 500
shrinkage=0.03


Tree=2
num_leaves=31
num_cat=0
split_feature=26 17 29 20 7 28 6 20 18 27 3 12 6 2 2 6 29 3 15 11 5 28 7 1 9 12 40 15 2 46
split_gain=23762.7 9046.61 3201.2 1207.19 602.99 353.119 301.809 230.017 171.909 88.206 64.3921 64.2362 57.216 62.7753 33.9116 30.1999 21.7908 20.3742 20.0513 19.7739 17.7244 15.7819 106.875 13.1336 12.5384 12.3647 12.3313 11.7225 11.7383 11.5485
threshold=1.0000000180025095e-35 1.0000000180025095e-35 1.0000000180025095e-35 1.0000000180025095e-35 1.0000000180025095e-35 1.0000000180025095e-35 1.0000000180025095e-35 1.0000000180025095e-35 1.0000000180025095e-35 1.0000000180025095e-35 1.0000000180025095e-35 1.0000000180025095e-35 1.0000000180025095e-35 1.0000000180025095e-35 1.0000000180025095e-35 1.5000000000000002 1.0000000180025095e-35 1.0000000180025095e-35 1.0000000180025095e-35 1.0000000180025095e-35 1.0000000180025095e-35 1.0000000180025095e-35 1.0000000180025095e-35 12.500000000000002 1.5000000000000002 1.0000000180025095e-35 0.6128772795200349 1.0000000180025095e-35 1.0000000180025095e-35 0.53463977575302135
decision_type=2 2 2 2 2 2 2 2 2 2 2 2 2 2 2 2 2 2 2 2 2 2 2 2 2 2 2 2 2 2
left_child=1 2 3 4 5 6 8 20 17 -10 27 -11 13 19 -5 -8 21 -1 -16 -12 -4 25 -23 -21 -6 -3 -15 28 -9 -17
right_child=-2 16 7 14 24 -7 15 10 9 11 12 -13 -14 26 18 29 -18 -19 -20 23 -22 22 -24 -25 -26 -27 -28 -29 -30 -31
leaf_value=0.0051949236191189225 -0.049624354437155425 -0.034488601645084632 -0.030470417915812377 -0.023934355622581626 0.016718149413855007 0.064158739147040608 0.012138099091810286 -0.0015404795597460988 -0.020077556074480106 0.044811675321309447 0.017611895020479894 0.050965662423782983 -0.030840763929215479 0.0014495071470878851 0.0041867004066644875 0.0026743043054998851 -0.039389567142589857 0.026271140682038768 -0.019923919346460092 -0.044783519329763356 -0.014614552905190667 0.016899255055553161 -0.035067122738644471 0.0031412848828008214 -0.019844899898892224 -0.028873317888618667 -0.015028163529304953 -0.022767277310456878 -0.024014006073544539 -0.033573609897305332
leaf_weight=52.295396536588669 5754.3072212040424 858.8139488697052 316.16008028388023 160.40547354519367 9.0733822435140592 1029.139312684536 137.38557462394238 76.15684249997139 17.444302082061768 3525.2242764830589 328.68891447782516 2692.4810369610786 36.030147105455399 76.732801795005798 94.297168672084808 12.842929258942602 343.6800833940506 195.97195987403393 46.278441190719604 5.7595535516738883 79.381624281406403 46.105022490024567 156.59454688429832 48.343578517436981 121.14147134125233 599.13822175562382 87.469373345375061 83.635151982307434 28.837891563773155 20.597150698304176
leaf_count=214 24026 3564 1310 663 37 4149 561 313 72 14270 1340 10884 149 315 386 53 1429 797 191 24 327 188 650 198 500 2481 360 345 119 85
internal_value=0 0.0252858 0.0377671 0.044449 0.04672 0.047805 0.0452757 -0.00868693 0.0463128 0.0472876 0.000847931 0.0474766 0.00577726 0.00818927 -0.0145074 0.00591495 -0.0325136 0.0218316 -0.00375068 0.0148456 -0.0272883 -0.0310906 -0.0232471 -0.00196055 -0.0172972 -0.032181 -0.00732804 -0.0143878 -0.00771307 -0.0196523
internal_weight=0 11286.1 9281.77 8114.58 7813.6 7683.38 6654.24 1167.2 6483.42 6235.15 771.654 6217.71 583.024 546.994 300.981 170.826 2004.33 248.267 140.576 382.792 395.542 1660.65 202.7 54.1031 130.215 1457.95 164.202 188.63 104.995 33.4401
internal_count=70000 45974 37662 32862 31622 31085 26936 4800 26237 25226 3163 25154 2386 2237 1240 699 8312 1011 577 1562 1637 6883 838 222 537 6045 675 777 432 138
shrinkage=0.03


Tree=3
num_leaves=31
num_cat=0
split_feature=26 17 29 20 7 28 6 20 18 27 6 3 12 2 2 6 29 3 15 11 5 11 1 7 28 28 7 13 0 40
split_gain=22510.2 8493.3 2990.32 1127.17 562.955 330.045 281.367 217.884 160.248 82.35 60.7932 61.5825 59.978 58.9424 32.1598 28.435 20.9827 19.0471 18.9344 18.5263 16.9291 15.507 12.475 12.2591 11.9422 11.8292 104.394 13.0798 11.8663 11.6449
threshold=1.0000000180025095e-35 1.0000000180025095e-35 1.0000000180025095e-35 1.0000000180025095e-35 1.0000000180025095e-35 1.0000000180025095e-35 1.0000000180025095e-35 1.0000000180025095e-35 1.0000000180025095e-35 1.0000000180025095e-35 1.0000000180025095e-35 1.0000000180025095e-35 1.0000000180025095e-35 1.0000000180025095e-35 1.0000000180025095e-35 1.5000000000000002 1.0000000180025095e-35 1.0000000180025095e-35 1.0000000180025095e-35 1.0000000180025095e-35 1.0000000180025095e-35 1.0000000180025095e-35 12.500000000000002 1.5000000000000002 1.0000000180025095e-35 1.0000000180025095e-35 1.0000000180025095e-35 1.0000000180025095e-35 11.500000000000002 0.6128772795200349
decision_type=2 2 2 2 2 2 2 2 2 2 2 2 2 2 2 2 2 2 2 2 2 2 2 2 2 2 2 2 2 2
left_child=1 2 3 4 5 6 8 20 17 -10 11 -9 -11 19 -5 -8 21 -1 -16 -13 -4 25 -21 24 -6 -3 27 28 -27 -15
right_child=-2 16 7 14 23 -7 15 10 9 12 -12 13 -14 29 18 -17 -18 -19 -20 22 -22 -23 -24 -25 -26 26 -28 -29 -30 -31
leaf_value=0.0050351224287152078 -0.048664090008286164 -0.029975131272149264 -0.029733684142513501 -0.023321127722949486 -0.029553164621208449 0.061940431869999757 0.011753663116751325 -0.012409050167407518 -0.019547046899372422 0.043274251561022742 -0.03235322876606056 0.017042967734644778 0.049207432814276447 0.0014056940369031041 0.0040585081229370821 -0.019133533694753152 -0.03852136592801688 0.025400315737875767 -0.019396845316753827 -0.043858516949930752 -0.014212713753700194 -0.035888501273877257 0.0030455774950592621 -0.037475228301671354 -0.00681644708288256 0.017795306402471806 -0.033882357972893434 -0.021271766986683587 0.058479645442924701 -0.014615476611297633
leaf_weight=52.335831135511398 5692.7450585067272 1113.7374926060438 314.30223420262337 159.6954558044672 28.07384392619133 1033.9365553557873 137.61913213133812 177.26252707839012 17.381175756454468 3540.7033739984035 46.703658372163773 329.45934265851974 2704.824879348278 76.750563383102417 94.35642996430397 33.319645836949348 340.92490516602993 196.60003405809402 46.1124297529459 5.7054115533828726 79.180304646492004 356.27371330559254 48.36656254529953 21.58638171851635 80.142477586865425 25.808455869555473 140.43319228291512 5.6532808095216742 8.602818623185156 87.244443297386169
leaf_count=214 24026 4645 1310 663 116 4149 561 732 72 14270 194 1340 10884 315 386 138 1429 797 191 24 327 1488 198 90 331 105 587 23 35 360
internal_value=0 0.0244873 0.0365135 0.0429424 0.0451249 0.0461671 0.0437267 -0.00844361 0.0447241 0.0456623 0.000821956 0.00295969 0.0458438 0.00793534 -0.0141115 0.00573308 -0.0317457 0.0211188 -0.0036413 0.0143718 -0.0266104 -0.0303462 -0.00190351 -0.0168326 -0.0127149 -0.0288205 -0.0216961 0.0210187 0.0279664 -0.00711748
internal_weight=0 11303.1 9311.66 8146.69 7846.52 7716.72 6682.78 1164.98 6511.85 6262.91 771.493 724.789 6245.53 547.526 300.164 170.939 1991.43 248.936 140.469 383.531 393.483 1650.51 54.072 129.803 108.216 1294.24 180.498 40.0646 34.4113 163.995
internal_count=70000 45974 37662 32862 31622 31085 26936 4800 26237 25226 3163 2969 25154 2237 1240 699 8312 1011 577 1562 1637 6883 222 537 447 5395 750 163 140 675
shrinkage=0.03


Tree=4
num_leaves=31
num_cat=0
split_feature=26 17 29 20 7 28 6 20 18 27 6 3 3 2 2 6 29 15 3 11 5 11 1 9 32 28 7 13 35 0
split_gain=21345.1 7982.33 2798.49 1054.44 526.571 310.624 262.99 206.447 149.917 77.0154 57.5399 57.9769 56.8022 55.3554 30.506 26.7741 20.2459 17.8813 17.8234 17.363 16.1846 14.9009 11.8581 11.8339 11.3954 11.2778 98.9648 12.2655 11.1623 11.0305
threshold=1.0000000180025095e-35 1.0000000180025095e-35 1.0000000180025095e-35 1.0000000180025095e-35 1.0000000180025095e-35 1.0000000180025095e-35 1.0000000180025095e-35 1.0000000180025095e-35 1.0000000180025095e-35 1.0000000180025095e-35 1.0000000180025095e-35 1.0000000180025095e-35 1.0000000180025095e-35 1.0000000180025095e-35 1.0000000180025095e-35 1.5000000000000002 1.0000000180025095e-35 1.0000000180025095e-35 1.0000000180025095e-35 1.0000000180025095e-35 1.0000000180025095e-35 1.0000000180025095e-35 12.500000000000002 1.5000000000000002 157.46318054199222 1.0000000180025095e-35 1.0000000180025095e-35 1.0000000180025095e-35 0.32949370145797735 11.500000000000002
decision_type=2 2 2 2 2 2 2 2 2 2 2 2 2 2 2 2 2 2 2 2 2 2 2 2 2 2 2 2 2 2
left_child=1 2 3 4 5 6 8 20 18 -10 11 -9 -11 19 -5 -8 21 -16 -1 -13 -4 25 -21 -6 -19 -3 27 29 -17 -27
right_child=-2 16 7 14 23 -7 15 10 9 12 -12 13 -14 -15 17 28 -18 24 -20 22 -22 -23 -24 -25 -26 26 -28 -29 -30 -31
leaf_value=0.00488041629535578 -0.047767260206202609 -0.029261753710818798 -0.029023219036393853 -0.022727114322676569 0.01665151606599452 0.059926920257784372 0.011382821335037771 -0.012064059748877589 -0.01903231525444269 0.035981803169220117 -0.031589269381829418 0.016496113950697527 0.045300341343397263 -0.0069131220634154915 0.0039343531582119728 -0.029171234783145528 -0.037692911849053524 0.019614526069662488 0.024569081398382809 -0.042984439303725891 -0.013822336290185783 -0.03508421441117221 0.0029528413691043598 -0.018873843732908409 -0.024683609742893794 0.017222395170862482 -0.033110490078602603 -0.020693824228622489 0.010072747029528385 0.056337976933396802
leaf_weight=52.374393880367279 5626.6335954070091 1106.7687782347202 312.36566185951233 158.96445406973362 9.0756505727767927 1036.5700495541096 137.83617952466011 176.86774699389935 17.316699743270874 657.77706071734428 46.402720063924789 330.15864640474319 5608.0487691760063 163.78482945263386 94.413143187761307 24.279846608638763 338.00970433652401 6.0134708881378165 197.1453665792942 5.647658944129943 78.977172374725342 353.54915651679039 48.388633608818054 120.30720882117748 39.929446697235107 25.86607463657856 139.41125617921352 5.6370790898799887 8.9192980378866178 8.6610136926174146
leaf_count=214 24026 4645 1310 663 37 4149 561 732 72 2641 194 1340 22513 675 386 101 1429 25 797 24 327 1488 198 500 166 105 587 23 37 35
internal_value=0 0.0237369 0.0353405 0.0415382 0.0436403 0.0446436 0.0422804 -0.00820828 0.0432418 0.0441475 0.000796916 0.00287019 0.0443221 0.00769042 -0.0137278 0.00555753 -0.0310075 -0.00353527 0.0204364 0.013916 -0.0259555 -0.0296295 -0.00184834 -0.0163819 -0.0188854 -0.0281303 -0.0211566 0.0203357 -0.0186279 0.0270344
internal_weight=0 11309.5 9331.56 8168.97 7869.65 7740.27 6703.7 1162.59 6532.66 6283.14 771.25 724.848 6265.83 547.98 299.321 171.035 1977.9 140.356 249.52 384.195 391.343 1639.89 54.0363 129.383 45.9429 1286.34 179.575 40.1642 33.1991 34.5271
internal_count=70000 45974 37662 32862 31622 31085 26936 4800 26237 25226 3163 2969 25154 2237 1240 699 8312 577 1011 1562 1637 6883 222 537 191 5395 750 163 138 140
shrinkage=0.03


Tree=5
num_leaves=31
num_cat=0
split_feature=26 17 29 20 7 28 6 20 18 27 12 6 3 2 2 6 29 15 3 34 5 11 7 28 9 45 40 49 46 28
split_gain=20259.1 7509.28 2623.31 988.06 493.359 294.195 246.377 195.66 140.703 72.137 56.4531 54.4782 54.5862 51.9963 28.9424 25.2159 19.569 16.8901 16.6928 16.6871 15.4859 14.3399 11.7453 11.3546 11.3201 11.0719 11.0118 10.8558 10.8382 10.7469
threshold=1.0000000180025095e-35 1.0000000180025095e-35 1.0000000180025095e-35 1.0000000180025095e-35 1.0000000180025095e-35 1.0000000180025095e-35 1.0000000180025095e-35 1.0000000180025095e-35 1.0000000180025095e-35 1.0000000180025095e-35 1.0000000180025095e-35 1.0000000180025095e-35 1.0000000180025095e-35 1.0000000180025095e-35 1.0000000180025095e-35 1.5000000000000002 1.0000000180025095e-35 1.0000000180025095e-35 1.0000000180025095e-35 99.968423629582716 1.0000000180025095e-35 1.0000000180025095e-35 1.5000000000000002 1.0000000180025095e-35 14.500000000000002 -7.9014999866485578 0.6128772795200349 0.056431191042065627 0.53463977575302135 1.0000000180025095e-35
decision_type=2 2 2 2 2 2 2 2 2 2 2 2 2 2 2 2 2 2 2 2 2 2 2 2 2 2 2 2 2 2
left_child=1 2 3 4 5 6 8 20 18 -10 -11 12 -9 19 -5 -8 21 -16 -1 24 -4 29 23 -6 27 -19 -15 -14 -17 -3
right_child=-2 16 7 14 22 -7 15 11 9 10 -12 -13 13 26 17 28 -18 25 -20 -21 -22 -23 -24 -25 -26 -27 -28 -29 -30 -31
leaf_value=0.004730630327654254 -0.046928087671864092 -0.028573004112438891 -0.028337184472262241 -0.022151245714997578 -0.028415211244933524 0.058091267425380663 0.011024963685710485 -0.011728770138207823 -0.018532622966051654 0.040412990800907371 0.04615391390053538 -0.030853700302153224 0.013855626577427949 0.001572231734060515 0.0038140952742930371 0.0035023515099452639 -0.036900817155663887 0.0039357396063633959 0.023774564013237142 0.0087703067959873354 -0.013442992420246604 -0.034312569332228586 -0.036279290711874912 -0.0061589917528095516 0.012988454911850968 -0.028142292583675933 -0.014025160257676434 0.038509035401739319 -0.031767895298584009 -0.020638553062036113
leaf_weight=52.41117724776268 5556.4901640117168 1099.5537146627903 310.36063104867935 158.21558037400246 27.824293255805969 1037.2303396761417 138.0377701073885 176.47220054268837 17.251103639602661 3560.8515951037407 2718.485318556428 46.08849136531353 24.40121690928936 76.682676002383232 94.467423379421234 12.77865646779537 334.9536239951849 13.913657218217848 197.6142755895853 245.45867925882339 78.772748842835426 350.69829142093658 21.333954483270645 79.796677887439728 67.818296238780022 31.854600161314011 86.906661987304688 47.110191643238068 20.294017463922501 178.58866558969021
leaf_count=214 24026 4645 1310 663 116 4149 561 732 72 14270 10884 194 99 315 386 53 1429 58 797 997 327 1488 90 331 275 133 360 191 85 750
internal_value=0 0.0230297 0.034239 0.0402248 0.0422531 0.0432209 0.0409248 -0.00798049 0.0418537 0.0427301 0.0428984 0.000772754 0.00278367 0.00745389 -0.0133558 0.00538786 -0.0302969 -0.00343274 0.0197825 0.0134772 -0.0253221 -0.0289388 -0.0159442 -0.0119131 0.0217693 -0.0183905 -0.00671387 0.0300968 -0.0181401 -0.0274644
internal_weight=0 11306.2 9342.43 8182.36 7883.91 7754.95 6717.72 1160.07 6546.61 6296.59 6279.34 770.938 724.85 548.378 298.451 171.11 1963.79 140.236 250.025 384.788 389.133 1628.84 128.955 107.621 139.33 45.7683 163.589 71.5114 33.0727 1278.14
internal_count=70000 45974 37662 32862 31622 31085 26936 4800 26237 25226 25154 3163 2969 2237 1240 699 8312 577 1011 1562 1637 6883 537 447 565 191 675 290 138 5395
shrinkage=0.03


Tree=6
num_leaves=31
num_cat=0
split_feature=26 17 29 20 7 28 6 20 18 27 12 6 3 2 2 6 29 11 15 3 5 11 1 7 50 28 32 35 40 32
split_gain=19245 7070.35 2462.93 927.303 462.961 280.182 231.306 185.478 132.454 67.6644 53.4334 51.594 51.3953 48.8435 27.4637 23.7524 18.9676 16.0793 15.9552 15.6464 14.8284 13.8423 11.2493 11.2276 10.9716 10.7903 10.6549 10.4103 10.3991 10.4806
threshold=1.0000000180025095e-35 1.0000000180025095e-35 1.0000000180025095e-35 1.0000000180025095e-35 1.0000000180025095e-35 1.0000000180025095e-35 1.0000000180025095e-35 1.0000000180025095e-35 1.0000000180025095e-35 1.0000000180025095e-35 1.0000000180025095e-35 1.0000000180025095e-35 1.0000000180025095e-35 1.0000000180025095e-35 1.0000000180025095e-35 1.5000000000000002 1.0000000180025095e-35 1.0000000180025095e-35 1.0000000180025095e-35 1.0000000180025095e-35 1.0000000180025095e-35 1.0000000180025095e-35 12.500000000000002 1.5000000000000002 137.9934997558594 1.0000000180025095e-35 157.46318054199222 0.32949370145797735 0.6128772795200349 166.12911224365237
decision_type=2 2 2 2 2 2 2 2 2 2 2 2 2 2 2 2 2 2 2 2 2 2 2 2 2 2 2 2 2 2
left_child=1 2 3 4 5 6 8 20 19 -10 -11 12 -9 17 -5 -8 21 -14 -16 -1 -4 -3 -19 25 -24 -6 -20 -17 29 -15
right_child=-2 16 7 14 23 -7 15 11 9 10 -12 -13 13 28 18 27 -18 22 26 -21 -22 -23 24 -25 -26 -27 -28 -29 -30 -31
leaf_value=0.0045855941561250037 -0.04614147638237389 -0.026815488768896455 -0.027673907935778914 -0.021592547750771501 -0.027728248580630062 0.056411054650229074 0.010679511177984819 -0.011402858168685295 -0.018047277896712347 0.039147379878448678 0.044729657660399109 -0.030144422811711053 0.015528676137450513 0.025904688057701682 0.0036976055800805132 -0.027947312372423479 -0.03614203728564136 -0.04236222244581108 0.019253318464961634 0.023014198817383334 -0.013074292163873957 -0.03357094858952317 -0.0092627675238113466 -0.035496928568623583 0.019796563119911206 -0.0059813029687023692 -0.023570055179076579 0.010004073615266326 -0.013641026055211516 -0.0035194690530271008
leaf_weight=52.44627371430397 5482.7923567295074 1269.9251203238964 308.29666778445244 157.4517195224762 27.660716712474823 1036.0937503874302 138.22489866614342 176.0766481757164 17.184602022171021 3565.6113194525242 2720.8503490239382 45.762689217925072 331.2849089205265 13.148942559957502 94.51939132809639 24.018777042627335 331.77442313730717 5.6023574471473685 6.0255256295204154 198.01263982057571 78.567501828074455 347.73720437288284 28.79650916159153 21.152783706784248 19.688335180282593 79.703650578856468 39.564649313688278 8.9212393909692747 86.676871776580811 63.553222373127937
leaf_count=214 24026 5395 1310 663 116 4149 561 732 72 14270 10884 194 1340 54 386 101 1429 24 25 797 327 1488 118 90 80 331 166 37 360 261
internal_value=0 0.0223612 0.0332024 0.0389932 0.0409539 0.041889 0.0396517 -0.00775975 0.0405508 0.0414009 0.0415635 0.000749336 0.00269984 0.00722495 -0.012995 0.00522398 -0.0296078 0.0130526 -0.00333335 0.0191552 -0.0247089 -0.0282677 -0.0021133 -0.0155199 0.00253741 -0.0115841 -0.0179102 -0.0176688 -0.00652113 0.00152467
internal_weight=0 11294.3 9344.9 8187.44 7889.88 7761.36 6725.27 1157.45 6554.11 6303.65 6286.46 770.59 724.828 548.751 297.561 171.165 1949.44 385.372 140.11 250.459 386.864 1617.66 54.0872 128.517 48.4848 107.364 45.5902 32.94 163.379 76.7022
internal_count=70000 45974 37662 32862 31622 31085 26936 4800 26237 25226 25154 3163 2969 2237 1240 699 8312 1562 577 1011 1637 6883 222 537 198 447 191 138 675 315
shrinkage=0.03


Tree=7
num_leaves=31
num_cat=0
split_feature=26 17 29 20 7 28 6 20 18 27 3 6 3 2 2 6 29 34 15 3 5 28 7 12 9 9 49 45 32 6
split_gain=18296.3 6662.38 2315.5 871.498 435.035 268.183 217.576 175.854 125.024 63.5506 52.909 48.8757 48.3965 45.8972 26.0641 22.3763 18.4166 15.4617 15.0746 14.6763 14.2083 13.4641 93.3172 11.4361 11.1673 10.6279 11.4865 10.411 10.4109 10.316
threshold=1.0000000180025095e-35 1.0000000180025095e-35 1.0000000180025095e-35 1.0000000180025095e-35 1.0000000180025095e-35 1.0000000180025095e-35 1.0000000180025095e-35 1.0000000180025095e-35 1.0000000180025095e-35 1.0000000180025095e-35 1.0000000180025095e-35 1.0000000180025095e-35 1.0000000180025095e-35 1.0000000180025095e-35 1.0000000180025095e-35 1.5000000000000002 1.0000000180025095e-35 99.968423629582716 1.0000000180025095e-35 1.0000000180025095e-35 1.0000000180025095e-35 1.0000000180025095e-35 1.0000000180025095e-35 1.0000000180025095e-35 1.5000000000000002 15.500000000000002 0.052801556885242469 -7.9014999866485578 166.61609649658206 1.0000000180025095e-35
decision_type=2 2 2 2 2 2 2 2 2 2 2 2 2 2 2 2 2 2 2 2 2 2 2 2 2 2 2 2 2 2
left_child=1 2 3 4 5 6 8 20 19 -10 -11 12 -9 17 -5 -8 21 25 -16 -1 -4 23 28 -3 -6 26 -14 -20 -23 -7
right_child=-2 16 7 14 24 29 15 11 9 10 -12 -13 13 -15 18 -17 -18 -19 27 -21 -22 22 -24 -25 -26 -27 -28 -29 -30 -31
leaf_value=0.0044451425861384624 -0.045402897949030657 -0.030908642421214258 -0.027031883340769013 -0.021050131729295121 0.016999124818309477 0.055118954722389327 0.010345929466388045 -0.011086014768697094 -0.01757565436600747 0.032273029817832401 0.041250127743824291 -0.029459545008929659 0.010881172401406843 -0.0063342224681472012 0.003584762777768181 -0.017211407638558357 -0.03541384908433224 0.0081173464067711941 0.0041973867572532349 0.022285660986887341 -0.012715855023533474 0.051142353963205052 -0.03165683537005904 -0.025417477231083247 -0.017552684807618374 0.010474470207431719 0.034831965896569228 -0.02698006920544941 0.011143748371458354 0.019139428133448103
leaf_weight=52.479766190052032 5405.9830384850502 828.30169039964676 306.18255630135536 156.67551921308041 9.0596937239170057 1026.1008214950562 138.39850147068501 175.68179599940777 17.117391228675842 660.19961956143379 5627.6296732127666 45.426897376775742 26.195152476429939 163.16489598155022 94.56916207075119 32.804800972342491 328.4884340763092 245.99335046112537 13.886195302009581 198.34596984088421 78.361874744296074 6.8873275071382514 151.28981053829193 580.61784030497074 119.00860510766506 55.891627967357635 57.755739539861679 31.519485950469971 39.13118939101696 7.2225543260574332
leaf_count=214 24026 3564 1310 663 37 4120 561 732 72 2641 22513 194 106 675 386 138 1429 997 58 797 327 28 650 2481 500 226 233 133 160 29
internal_value=0 0.021728 0.0322242 0.0378346 0.0397329 0.040638 0.0384522 -0.00754641 0.0393241 0.0401504 0.0403076 0.0007267 0.00261893 0.00700455 -0.012645 0.00506558 -0.0289415 0.0126453 -0.00323704 0.0185529 -0.0241146 -0.0276179 -0.0202782 -0.0286457 -0.0151085 0.0206104 0.0273586 -0.0174452 0.0171301 0.0548675
internal_weight=0 11274.4 9339.67 8185.02 7888.37 7760.3 6726.98 1154.65 6555.77 6304.95 6287.83 770.109 724.683 549.001 296.65 171.203 1934.72 385.836 139.975 250.826 384.544 1606.23 197.308 1408.92 128.068 139.843 83.9509 45.4057 46.0185 1033.32
internal_count=70000 45974 37662 32862 31622 31085 26936 4800 26237 25226 25154 3163 2969 2237 1240 699 8312 1562 577 1011 1637 6883 838 6045 537 565 339 191 188 4149
shrinkage=0.03


Tree=8
num_leaves=31
num_cat=0
split_feature=26 17 29 20 7 28 6 20 18 27 12 6 3 2 2 6 29 11 15 3 5 11 7 1 50 28 32 46 40 52
split_gain=17407.6 6282.49 2179.67 820.078 409.317 257.889 205.027 166.764 118.29 59.755 51.1834 46.3116 45.5723 43.1278 24.7389 21.0773 17.8851 14.8937 14.2436 13.7755 13.6221 13.2354 10.7847 10.6764 10.3174 10.2751 10.2387 10.1922 10.3279 10.1809
threshold=1.0000000180025095e-35 1.0000000180025095e-35 1.0000000180025095e-35 1.0000000180025095e-35 1.0000000180025095e-35 1.0000000180025095e-35 1.0000000180025095e-35 1.0000000180025095e-35 1.0000000180025095e-35 1.0000000180025095e-35 1.0000000180025095e-35 1.0000000180025095e-35 1.0000000180025095e-35 1.0000000180025095e-35 1.0000000180025095e-35 1.5000000000000002 1.0000000180025095e-35 1.0000000180025095e-35 1.0000000180025095e-35 1.0000000180025095e-35 1.0000000180025095e-35 1.0000000180025095e-35 1.5000000000000002 12.500000000000002 117.53450012207033 1.0000000180025095e-35 185.00662231445315 0.53463977575302135 0.56611955165863048 0.59504321217536937
decision_type=2 2 2 2 2 2 2 2 2 2 2 2 2 2 2 2 2 2 2 2 2 2 2 2 2 2 2 2 2 2
left_child=1 2 3 4 5 6 8 20 19 -10 -11 12 26 17 -5 29 21 -14 -16 -1 -4 -3 25 -19 -25 -6 -9 28 -17 -8
right_child=-2 16 7 14 22 -7 15 11 9 10 -12 -13 13 -15 18 27 -18 23 -20 -21 -22 -23 -24 24 -26 -27 -28 -29 -30 -31
leaf_value=0.0043091230741975654 -0.044708336688475563 -0.025565329433892392 -0.026409743912796761 -0.020523172504968636 -0.026693972163264738 0.053444749871434175 0.015003521518155464 0.0014886925940736282 -0.017117161347435947 0.036758625906248663 0.042223681448333328 -0.028797354444526826 0.014628162079424937 -0.0061514045719217331 0.0034754390765143897 0.029676344299907748 -0.034713792040569215 -0.041746683374532544 -0.016993493881353301 0.021586864108263517 -0.012367329270980592 -0.032225855088720133 -0.034427890107271743 -0.015243579482108414 0.013149322457126415 -0.0053828576765176201 -0.015063529040926593 -0.030132881682750565 -0.024494588325508951 -0.0032557874646876516
leaf_weight=52.511734396219254 5326.4696306884289 1252.5119116604328 304.02637809514999 155.8894394338131 27.388540148735046 1029.0677401274443 100.77051365375519 45.384380027651787 17.049651503562927 3566.4749345183372 2717.5920359194279 45.082579538226128 332.19471676647663 162.97661979496479 94.616827636957169 6.7433240413665754 325.11079667508602 5.5539051145315161 45.21903021633625 198.61937242746353 78.156252533197403 341.78039172291756 20.874767825007439 18.789232701063156 29.765958219766617 79.364821419119835 129.90389513969421 19.961914882063866 5.9734754264354706 37.788942620158195
leaf_count=214 24026 5395 1310 663 116 4149 408 189 72 14270 10884 194 1340 675 386 28 1429 24 191 797 327 1488 90 77 121 331 543 85 25 153
internal_value=0 0.0211269 0.0312978 0.036741 0.0385816 0.0394589 0.0373182 -0.00733904 0.0381651 0.0389699 0.039122 0.000704847 0.00254047 0.00679069 -0.0123051 0.00491228 -0.0283009 0.0122508 -0.00314364 0.0179741 -0.0235381 -0.0269932 -0.0147067 -0.00234471 0.00216222 -0.0108504 -0.0107779 -0.0167605 0.00423058 0.0100237
internal_weight=0 11247.1 9327.74 8175.91 7880.18 7752.55 6723.49 1151.83 6552.25 6301.12 6284.07 769.651 724.569 549.28 295.725 171.238 1919.4 386.304 139.836 251.131 382.183 1594.29 127.628 54.1091 48.5552 106.753 175.288 32.6787 12.7168 138.559
internal_count=70000 45974 37662 32862 31622 31085 26936 4800 26237 25226 25154 3163 2969 2237 1240 699 8312 1562 577 1011 1637 6883 537 222 198 447 732 138 53 561
shrinkage=0.03


Tree=9
num_leaves=31
num_cat=0
split_feature=26 17 29 20 7 28 6 20 18 27 3 6 3 2 2 6 28 7 27 34 15 5 3 12 9 9 43 50 32 6
split_gain=16573.6 5928.09 2054.17 772.621 385.559 248.972 193.496 158.162 112.174 56.2473 50.0421 43.8915 42.9186 40.5367 23.4857 19.8634 17.6062 89.334 19.3036 14.3364 13.4553 13.0669 12.938 11.1371 10.5426 10.0191 12.6536 10.6191 10.0056 9.87866
threshold=1.0000000180025095e-35 1.0000000180025095e-35 1.0000000180025095e-35 1.0000000180025095e-35 1.0000000180025095e-35 1.0000000180025095e-35 1.0000000180025095e-35 1.0000000180025095e-35 1.0000000180025095e-35 1.0000000180025095e-35 1.0000000180025095e-35 1.0000000180025095e-35 1.0000000180025095e-35 1.0000000180025095e-35 1.0000000180025095e-35 1.5000000000000002 1.0000000180025095e-35 1.0000000180025095e-35 1.0000000180025095e-35 99.968423629582716 1.0000000180025095e-35 1.0000000180025095e-35 1.0000000180025095e-35 1.0000000180025095e-35 1.5000000000000002 17.500000000000004 1.5000000000000002 164.99900054931643 157.46318054199222 1.0000000180025095e-35
decision_type=2 2 2 2 2 2 2 2 2 2 2 2 2 2 2 2 2 2 2 2 2 2 2 2 2 2 2 2 2 2
left_child=1 2 3 4 5 6 8 21 22 -10 -11 12 -9 19 -5 -8 18 -18 -3 25 -16 -4 -1 -20 -6 27 -27 -14 -22 -7
right_child=-2 16 7 14 24 29 15 11 9 10 -12 -13 13 -15 20 -17 17 -19 23 -21 28 -23 -24 -25 -26 26 -28 -29 -30 -31
leaf_value=0.0041773840808468111 -0.044054208852008871 -0.034837488985271316 -0.02580624413520205 -0.020010922749305795 0.016863539761034212 0.052376836732609018 0.009712431612176194 -0.010478962246631775 -0.016671258122498492 0.030183292376292869 0.038919375932034844 -0.028156304634619874 0.027683723192046573 -0.0059737727582968147 0.0033695245579122737 -0.016333645882851671 0.017435306318293171 -0.030416672382436876 -0.029296573830734935 0.0075140668386451366 0.019456931506145112 -0.012028382954852042 0.020915904186754819 -0.023765497003209599 -0.016711212652460783 0.032731734037554271 -0.0029644715923474239 -0.010154820197083955 -0.022102699719844878 0.017065991856174644
leaf_weight=52.542258054018021 5244.6287654340267 358.60559837520123 301.83560952544212 155.09571294486523 9.0630863606929761 1016.2901932001114 138.70636779069901 174.88977226614952 16.981548070907593 659.41646146774292 5616.0061213076115 44.731085866689682 89.889768540859222 162.79096600413322 94.662497311830521 32.53255957365036 45.94800578057766 148.8915963768959 791.65501827001572 246.43031911551952 6.0176657140254965 77.951010391116142 198.8376336991787 558.98282817006111 118.1061040610075 12.643234610557554 30.491951897740364 7.2105897665023795 39.022702097892761 7.1809584349393836
leaf_count=214 24026 1590 1310 663 37 4120 561 732 72 2641 22513 194 362 675 386 138 188 650 3463 997 25 327 797 2421 500 51 123 29 166 29
internal_value=0 0.0205547 0.0304197 0.0357072 0.0374943 0.0383458 0.036245 -0.00713842 0.0370688 0.0378538 0.0380014 0.000683671 0.00246465 0.00658454 -0.0119745 0.00476411 -0.0276762 -0.019132 -0.0286502 0.0118717 -0.00305258 -0.0229783 0.0174173 -0.0270075 -0.0143184 0.0195293 0.00749834 0.0248739 -0.0165501 0.0521291
internal_weight=0 11213.4 9309.33 8160.46 7865.66 7738.49 6715.02 1148.86 6543.78 6292.4 6275.42 769.078 724.347 549.457 294.799 171.239 1904.08 194.84 1709.24 386.666 139.703 379.787 251.38 1350.64 127.169 140.236 43.1352 97.1004 45.0404 1023.47
internal_count=70000 45974 37662 32862 31622 31085 26936 4800 26237 25226 25154 3163 2969 2237 1240 699 8312 838 7474 1562 577 1637 1011 5884 537 565 174 391 191 4149
shrinkage=0.03


Tree=10
num_leaves=31
num_cat=0
split_feature=26 17 29 20 7 28 6 20 18 27 12 6 3 2 2 6 28 7 27 11 15 5 3 12 7 1 50 40 32 0
split_gain=15790 5597.07 1937.95 728.654 363.571 241.271 182.898 150.027 106.579 52.9955 49.4077 41.6058 40.4174 38.1002 22.2956 18.7129 16.8996 84.864 18.8059 13.7994 12.7156 12.54 12.1583 10.7779 10.3699 10.1605 9.98457 9.85922 9.85163 10.1882
threshold=1.0000000180025095e-35 1.0000000180025095e-35 1.0000000180025095e-35 1.0000000180025095e-35 1.0000000180025095e-35 1.0000000180025095e-35 1.0000000180025095e-35 1.0000000180025095e-35 1.0000000180025095e-35 1.0000000180025095e-35 1.0000000180025095e-35 1.0000000180025095e-35 1.0000000180025095e-35 1.0000000180025095e-35 1.0000000180025095e-35 1.5000000000000002 1.0000000180025095e-35 1.0000000180025095e-35 1.0000000180025095e-35 1.0000000180025095e-35 1.0000000180025095e-35 1.0000000180025095e-35 1.0000000180025095e-35 1.0000000180025095e-35 1.5000000000000002 12.500000000000002 137.9934997558594 0.6128772795200349 166.12911224365237 4.5000000000000009
decision_type=2 2 2 2 2 2 2 2 2 2 2 2 2 2 2 2 2 2 2 2 2 2 2 2 2 2 2 2 2 2
left_child=1 2 3 4 5 6 8 21 22 -10 -11 12 -9 19 -5 -8 18 -18 -3 -14 -16 -4 -1 -20 -6 -21 -27 28 29 -15
right_child=-2 16 7 14 24 -7 15 11 9 10 -12 -13 13 27 20 -17 17 -19 23 25 -22 -23 -24 -25 -26 26 -28 -29 -30 -31
leaf_value=0.0040497800834559689 -0.043437300260800241 -0.034177535618804412 -0.025220256029143004 -0.019512696244960073 -0.010159076569211948 0.050909364764659036 0.0094115471326832161 -0.010187608700120334 -0.016237442176221729 0.034614305001026191 0.039993597689301358 -0.027534989438001374 0.013788011018035897 -0.008759839140331193 0.003266904558093467 -0.015906634176805001 0.016870018599761914 -0.029775375185734254 -0.028671641183475361 -0.04117269064904458 -0.016124112220904527 -0.011698699913992687 0.020271066950729767 -0.023209907817820043 -0.033424596398504182 -0.0094392819783527572 0.018232614067696069 -0.012762676634273065 -0.0028717930373259341 0.045892236594622209
leaf_weight=52.571407318115234 5160.8084335923195 354.62469293177128 299.61710229516029 154.29640455543995 106.13822820782661 1016.6540934294462 138.84442654252052 174.50063808262348 16.913233280181885 3557.0519571304321 2705.4997686892748 44.373659029603004 332.92181642353535 4.8757633566856375 94.706257373094559 32.405661270022392 46.061248511075974 147.55578452348709 784.74802558124065 5.5052815228700629 44.848121464252472 77.746469914913177 199.00519536435604 555.24967749416828 20.586324632167816 28.819238692522049 19.7965137809515 86.122545003890991 63.320931941270828 8.2887977063655836
leaf_count=214 24026 1590 1310 663 447 4149 561 732 72 14270 10884 194 1340 20 386 138 188 650 3463 24 191 327 797 2421 90 118 80 360 261 34
internal_value=0 0.0200093 0.0295842 0.0347266 0.0364637 0.0372911 0.0352254 -0.00694332 0.0360279 0.036795 0.0369382 0.000663194 0.00239109 0.00638451 -0.0116538 0.00462059 -0.0270749 -0.0186785 -0.0280343 0.0115041 -0.00296472 -0.0224345 0.0168813 -0.0264085 -0.0139385 -0.00254537 0.00182882 -0.00580118 0.00203746 0.0256507
internal_weight=0 11173.6 9285.41 8139.52 7845.67 7718.95 6702.29 1145.89 6531.04 6279.46 6262.55 768.525 724.152 549.651 293.851 171.25 1888.24 193.617 1694.62 387.043 139.554 377.364 251.577 1340 126.725 54.121 48.6158 162.608 76.4855 13.1646
internal_count=70000 45974 37662 32862 31622 31085 26936 4800 26237 25226 25154 3163 2969 2237 1240 699 8312 838 7474 1562 577 1637 1011 5884 537 222 198 675 315 54
shrinkage=0.03


Tree=11
num_leaves=31
num_cat=0
split_feature=26 17 29 20 7 28 6 20 18 3 12 6 3 2 1 2 6 29 34 11 5 15 3 9 45 46 40 32 35 50
split_gain=15052.9 5287.48 1830.02 687.884 343.18 234.545 173.119 142.319 101.452 52.0861 46.3983 39.4461 38.0662 35.8223 33.802 21.1697 17.63 16.3473 13.3262 12.6094 12.039 12.0125 11.4314 9.976 9.88354 9.78273 9.76642 9.7297 9.60904 9.61075
threshold=1.0000000180025095e-35 1.0000000180025095e-35 1.0000000180025095e-35 1.0000000180025095e-35 1.0000000180025095e-35 1.0000000180025095e-35 1.0000000180025095e-35 1.0000000180025095e-35 1.0000000180025095e-35 1.0000000180025095e-35 1.0000000180025095e-35 1.0000000180025095e-35 1.0000000180025095e-35 1.0000000180025095e-35 19.500000000000004 1.0000000180025095e-35 1.5000000000000002 1.0000000180025095e-35 99.968423629582716 1.0000000180025095e-35 1.0000000180025095e-35 1.0000000180025095e-35 1.0000000180025095e-35 1.5000000000000002 -7.9014999866485578 0.53463977575302135 0.56611955165863048 185.00662231445315 0.12489242106676103 144.20849609375003
decision_type=2 2 2 2 2 2 2 2 2 2 2 2 2 2 2 2 2 2 2 2 2 2 2 2 2 2 2 2 2 2
left_child=1 2 3 4 5 6 8 20 22 14 -11 12 27 18 -10 -5 -8 19 -14 -3 -4 -17 -1 -6 -23 26 -18 -9 -22 -30
right_child=-2 17 7 15 23 -7 16 11 9 10 -12 -13 13 -15 -16 21 25 -19 -20 -21 28 24 -24 -25 -26 -27 -28 -29 29 -31
leaf_value=0.0039261754909564427 -0.042854731030447818 -0.023826043643182436 -0.0246507499236545 -0.01902785537538651 0.016749343187019181 0.049774877960412474 0.009120679327984783 0.0020709639576355211 0.018605675724373275 0.034298148223079659 0.039797050237057555 -0.026932134404073205 0.018525206490898789 -0.0056350691436135546 0.032799904647056899 0.0031674725005499138 0.029767835938606393 -0.032731725513507753 0.0069516798320646079 -0.030412789440712587 -0.021906376034448581 0.005443889073518211 0.01965079422604131 -0.015914170761395556 -0.025120429016515407 -0.028739467166090212 -0.023093686406295007 -0.014103998978389834 0.0073213376351718533 -0.028390355630332514
leaf_weight=52.599252343177795 5075.3287008404732 1225.2190736532211 297.37718105316162 153.49341112375259 9.0662801116704923 1008.7494151294231 138.97214984893799 45.208046451210976 231.82103273272514 3119.7470377981663 2477.8451596498489 44.011445000767708 140.52871504426003 162.39453125 433.07404407858849 94.748199850320816 6.7400182485580427 314.38930366933346 246.78104655444622 332.57780675590038 38.890031337738037 13.761656269431112 199.12620222568512 117.21362583339214 30.90720023214817 19.640359878540039 5.8983011543750763 128.90636400878429 29.878926515579224 8.7739704847335798
leaf_count=214 24026 5395 1310 663 37 4149 561 189 933 12547 10005 194 565 675 1741 386 28 1429 997 1488 164 58 797 500 133 85 25 543 126 37
internal_value=0 0.0194886 0.0287888 0.033795 0.0354855 0.0362906 0.034256 -0.00675466 0.0350388 0.0357894 0.0367323 0.000643331 0.00232004 0.00619199 0.027851 -0.0113414 0.00448167 -0.0264916 0.0111509 -0.0252323 -0.0219056 -0.00287894 0.0163651 -0.0135691 -0.0157041 -0.0154911 0.00509737 -0.00990424 -0.011378 -0.000784998
internal_weight=0 11128.3 9256.15 8113.4 7820.49 7694.21 6685.46 1142.75 6514.21 6262.49 5597.59 767.83 723.819 549.704 664.895 292.91 171.251 1872.19 387.31 1557.8 374.92 139.417 251.725 126.28 44.6689 32.2787 12.6383 174.114 77.5429 38.6529
internal_count=70000 45974 37662 32862 31622 31085 26936 4800 26237 25226 22552 3163 2969 2237 2674 1240 699 8312 1562 6883 1637 577 1011 537 191 138 53 732 327 163
shrinkage=0.03


Tree=12
num_leaves=31
num_cat=0
split_feature=26 17 29 20 7 28 6 20 18 27 12 7 2 6 3 2 6 15 28 7 27 11 49 33 5 15 35 44 32 3
split_gain=14358.2 4997.2 1729.66 649.946 324.206 228.697 164.023 135.029 96.7194 50.011 45.6585 38.831 33.0923 28.7638 26.7673 20.0993 16.6199 16.3617 16.2778 81.3112 18.0048 13.0425 12.602 11.5843 11.5592 11.353 10.8334 13.1651 12.1393 10.753
threshold=1.0000000180025095e-35 1.0000000180025095e-35 1.0000000180025095e-35 1.0000000180025095e-35 1.0000000180025095e-35 1.0000000180025095e-35 1.0000000180025095e-35 1.0000000180025095e-35 1.0000000180025095e-35 1.0000000180025095e-35 1.0000000180025095e-35 1.0000000180025095e-35 1.0000000180025095e-35 1.0000000180025095e-35 1.0000000180025095e-35 1.0000000180025095e-35 1.5000000000000002 1.0000000180025095e-35 1.0000000180025095e-35 1.0000000180025095e-35 1.0000000180025095e-35 1.0000000180025095e-35 0.35350890457630163 2012.5000000000002 1.0000000180025095e-35 1.0000000180025095e-35 0.12863252311944964 0.093298062682151808 159.58000183105472 1.0000000180025095e-35
decision_type=2 2 2 2 2 2 2 2 2 2 2 2 2 2 2 2 2 2 2 2 2 2 2 2 2 2 2 2 2 2
left_child=1 2 3 4 5 6 8 24 29 -10 -11 12 13 14 17 -5 -8 23 20 -20 -3 -16 -19 -9 -4 -17 -14 -28 -29 -1
right_child=-2 18 7 15 -6 -7 16 11 9 10 -12 -13 26 -15 21 25 -18 22 19 -21 -22 -23 -24 -25 -26 -27 27 28 -30 -31
leaf_value=0.0038064347613629744 -0.042303899994283543 -0.032955054822518093 -0.02409678522315873 -0.018555820044754825 -0.013209556151710496 0.048717320539836052 0.0088394310166274703 -0.023187836916648937 -0.016599824218532538 0.032733086306112998 0.037920702678610016 -0.042912813426434819 -0.014225871337998965 -0.023500157016218381 0.013432263592444012 0.0030711243148578348 -0.015101336364151874 -0.023500075282002153 0.017123792067779777 -0.028648238741823043 -0.025271803563427449 -0.0024855023372449998 0.025797560321378189 0.0098816417170595073 -0.011067244071196703 -0.015300809196994938 -0.025474733104344904 0.033330436053202787 -0.00045292190208157373 0.019053648574236609
leaf_weight=52.625856906175613 4988.4845717847347 346.66523040831089 295.12166291475296 152.68847143650055 125.83421805500984 999.86133313179016 139.09021255373955 11.445795178413389 16.970126032829285 3539.8721871376038 2685.2923041731119 18.004948332905769 119.89261144399643 28.710337936878204 331.01669991016388 94.788411021232605 32.12471678853035 44.183301508426666 46.008809596300125 145.05155551433563 1318.6149329096079 53.866651013493538 5.2180601656436911 57.065376073122025 77.337042659521103 44.476109564304352 16.199886083602905 11.076058894395826 70.522943183779716 199.20453780889511
leaf_count=214 24026 1590 1310 663 537 4149 561 48 72 14270 10884 76 503 128 1330 386 138 187 188 650 5884 221 22 239 327 191 68 46 295 797
internal_value=0 0.0189893 0.0280287 0.0329072 0.034554 0.0353381 0.0333311 -0.00657086 0.0340952 0.0348306 0.0349708 0.000624138 0.00167043 0.00570552 0.0073732 -0.0110383 0.00434747 -0.00513263 -0.0259197 -0.017626 -0.0268712 0.0112045 -0.018293 0.0043569 -0.0213913 -0.00279621 -0.00818147 -0.000771576 0.00413275 0.0158674
internal_weight=0 11078.8 9222.49 8082.83 7790.88 7665.04 6665.18 1139.66 6493.97 6242.13 6225.16 767.203 749.198 531.506 502.796 291.953 171.215 117.913 1856.34 191.06 1665.28 384.883 49.4014 68.5112 372.459 139.265 217.691 97.7989 81.599 251.83
internal_count=70000 45974 37662 32862 31622 31085 26936 4800 26237 25226 25154 3163 3087 2175 2047 1240 699 496 8312 838 7474 1551 209 287 1637 577 912 409 341 1011
shrinkage=0.03


Tree=13
num_leaves=31
num_cat=0
split_feature=26 17 29 20 7 28 6 20 18 3 14 7 1 2 6 3 2 6 28 7 27 15 11 49 5 33 15 12 35 44
split_gain=13703.3 4725.17 1636.15 614.626 306.572 223.551 155.615 128.113 92.3528 49.7794 43.9151 36.8829 32.0112 31.1679 27.1858 25.165 19.0861 15.6597 15.6287 77.2651 17.5964 15.468 12.2534 11.9038 11.1041 10.9227 10.7254 10.4945 10.2433 12.4487
threshold=1.0000000180025095e-35 1.0000000180025095e-35 1.0000000180025095e-35 1.0000000180025095e-35 1.0000000180025095e-35 1.0000000180025095e-35 1.0000000180025095e-35 1.0000000180025095e-35 1.0000000180025095e-35 1.0000000180025095e-35 1.0000000180025095e-35 1.0000000180025095e-35 19.500000000000004 1.0000000180025095e-35 1.0000000180025095e-35 1.0000000180025095e-35 1.0000000180025095e-35 1.5000000000000002 1.0000000180025095e-35 1.0000000180025095e-35 1.0000000180025095e-35 1.0000000180025095e-35 1.0000000180025095e-35 0.35350890457630163 1.0000000180025095e-35 2012.5000000000002 1.0000000180025095e-35 1.0000000180025095e-35 0.12863252311944964 0.093298062682151808
decision_type=2 2 2 2 2 2 2 2 2 2 2 2 2 2 2 2 2 2 2 2 2 2 2 2 2 2 2 2 2 2
left_child=1 2 3 4 5 6 8 24 -1 12 -11 13 -10 14 15 21 -5 -8 20 -20 -3 25 -17 -23 -4 -9 -18 -22 -15 -30
right_child=-2 18 7 16 -6 -7 17 11 9 10 -12 -13 -14 28 -16 22 26 -19 19 -21 27 23 -24 -25 -26 -27 -28 -29 29 -31
leaf_value=0.015387352981088858 -0.041782472921863434 -0.032358697218237614 -0.023557509014323179 -0.01809604878022025 -0.012855997252056585 0.047729140952760755 0.0085674288946581568 -0.022609110165676759 0.017123335873696983 0.035198926699755106 0.014873801246776279 -0.042035175864972761 0.030968889487336119 -0.01384225377872882 -0.022972971394064602 0.013018346846185299 0.0029777611075124406 -0.014707001474278907 0.016570681256021482 -0.02806007561114 -0.026985462099291244 -0.02292576648477233 -0.002411815286000566 0.024879869626258263 -0.010763593363913984 0.0095650837035265723 -0.014902522098546648 -0.021531880316899604 -0.024850388539334713 0.0040054383956701894
leaf_weight=251.89508220553398 4900.5467059910297 342.52546422183514 292.85583794116974 151.88316620886326 125.4223377853632 990.09240806102753 139.19924846291542 11.387501716613768 230.85146601498127 5459.5203848034143 97.379640728235245 17.832053706049919 430.6432131677866 119.52445036172867 28.491455435752869 331.29074294865131 94.826965659856796 31.998424798250198 46.116506606340408 143.67025782167912 764.57579559087753 43.935210093855858 53.847349777817726 5.2477464377880088 77.136317983269691 57.183509036898613 44.297577276825905 543.18202739953995 16.110056698322296 81.658494114875793
leaf_count=1011 24026 1590 1310 663 537 4149 561 48 933 22158 394 76 1741 503 128 1330 386 138 188 650 3463 187 221 22 327 239 191 2421 68 341
internal_value=0 0.0185112 0.0273022 0.0320604 0.0336662 0.0344308 0.0324483 -0.00639267 0.0331953 0.0339167 0.0348427 0.000605275 0.026137 0.00162089 0.00553512 0.00715026 -0.0107429 0.00421722 -0.0253681 -0.0172152 -0.0263057 -0.00498651 0.010861 -0.017825 -0.0208902 0.00422196 -0.00271536 -0.0247203 -0.00795125 -0.000749352
internal_weight=0 11024.6 9184.51 8048.01 7757 7631.58 6641.49 1136.5 6470.29 6218.39 5556.9 766.509 661.495 748.677 531.384 502.892 291.008 171.198 1840.07 189.787 1650.28 117.754 385.138 49.183 369.992 68.571 139.125 1307.76 217.293 97.7686
internal_count=70000 45974 37662 32862 31622 31085 26936 4800 26237 25226 22552 3163 2674 3087 2175 2047 1240 699 8312 838 7474 496 1551 209 1637 287 577 5884 912 409
shrinkage=0.03


Tree=14
num_leaves=31
num_cat=0
split_feature=26 17 29 20 7 28 6 20 18 3 12 7 1 6 2 3 2 29 6 15 11 11 49 40 43 5 48 33 3 15
split_gain=13084.8 4469.61 1548.69 581.615 290.091 219.09 147.766 121.557 88.3528 47.6236 43.6806 35.0546 30.39 29.7413 30.0268 23.6609 18.1244 15.0649 14.7556 14.6252 12.271 11.514 11.247 11.2399 11.0658 10.6695 10.5945 10.3003 10.1425 10.1326
threshold=1.0000000180025095e-35 1.0000000180025095e-35 1.0000000180025095e-35 1.0000000180025095e-35 1.0000000180025095e-35 1.0000000180025095e-35 1.0000000180025095e-35 1.0000000180025095e-35 1.0000000180025095e-35 1.0000000180025095e-35 1.0000000180025095e-35 1.0000000180025095e-35 19.500000000000004 1.0000000180025095e-35 1.0000000180025095e-35 1.0000000180025095e-35 1.0000000180025095e-35 1.0000000180025095e-35 1.5000000000000002 1.0000000180025095e-35 1.0000000180025095e-35 1.0000000180025095e-35 0.35350890457630163 0.69183680415153515 5.5000000000000009 1.0000000180025095e-35 0.21255498379468921 2012.5000000000002 1.0000000180025095e-35 1.0000000180025095e-35
decision_type=2 2 2 2 2 2 2 2 2 2 2 2 2 2 2 2 2 2 2 2 2 2 2 2 2 2 2 2 2 2
left_child=1 2 3 4 5 6 8 25 28 12 -11 13 -10 14 15 19 -5 20 -8 27 -3 -17 -21 26 -25 -4 -16 -9 -1 -18
right_child=-2 17 7 16 -6 -7 18 11 9 10 -12 -13 -14 -15 23 21 29 -19 -20 22 -22 -23 -24 24 -26 -27 -28 -29 -30 -31
leaf_value=0.003222307362456928 -0.041288322324275276 -0.022213489433395871 -0.023032140700911113 -0.017648043940293387 -0.012511775982213924 0.046803728927931811 0.0083043092801173887 -0.022047470929666319 0.016635589902051086 0.031578614130460148 0.036946656391619218 -0.041201924316707925 0.030140508407540758 -0.023751050780765132 -0.0150155194571124 0.012618612346676682 0.0028872863808507062 -0.030937189060359312 -0.014322940614648703 -0.0223680494019875 -0.028800079635108347 -0.0023402941962339394 0.024007072318559863 -0.02789910718772199 -0.0050299676855906023 -0.010468104249420161 0.0040943899530206124 0.0092597065909036311 0.018016221076034303 -0.014514597689577718
leaf_weight=52.75034636259079 4811.7653561532497 1197.0994224399328 290.58460578322411 151.07895760238171 125.01302574574947 979.5376630872488 139.29985946416855 11.328166365623472 230.49669069051743 3088.9590408951044 2443.4331658035517 17.64966082572937 429.22596828639507 39.532991662621498 36.319624841213226 331.52813556790352 94.863950043916702 303.25722439587116 31.872680112719536 43.683601513504982 323.32281692326069 53.82847273349762 5.2749504446983329 35.966602385044098 40.469065576791763 76.93733611702919 92.882594391703606 57.295538902282715 199.24910928308964 44.119784444570541
leaf_count=214 24026 5395 1310 663 537 4149 561 48 933 12547 10005 76 1741 178 152 1330 386 1429 138 187 1488 221 22 152 171 327 387 239 797 191
internal_value=0 0.0180515 0.0266049 0.0312491 0.0328161 0.0335622 0.0316015 -0.00621966 0.0323323 0.0330409 0.0339495 0.000587061 0.0254221 0.00157296 0.00298584 0.00693474 -0.0104554 -0.0248319 0.00409107 -0.0048451 -0.0236141 0.0105291 -0.0173714 -0.00667219 -0.015791 -0.020402 -0.00127754 0.00409162 0.0149195 -0.00263687
internal_weight=0 10966.9 9143.18 8009.9 7719.84 7594.82 6615.29 1133.28 6444.11 6192.11 5532.39 765.759 659.723 748.11 708.577 502.939 290.063 1823.68 171.173 117.582 1520.42 385.357 48.9586 205.638 76.4357 367.522 129.202 68.6237 251.999 138.984
internal_count=70000 45974 37662 32862 31622 31085 26936 4800 26237 25226 22552 3163 2674 3087 2909 2047 1240 8312 699 496 6883 1551 209 862 323 1637 539 287 1011 577
shrinkage=0.03


Tree=15
num_leaves=31
num_cat=0
split_feature=26 17 29 20 7 28 6 20 18 27 12 7 6 2 3 2 28 7 27 6 15 34 40 49 44 43 5 7 12 6
split_gain=12500.3 4229.38 1466.94 550.783 274.699 215.121 140.454 115.339 84.57 47.391 42.9721 33.3362 28.1786 28.2656 22.2486 17.2112 15.0724 74.0626 16.9314 13.9042 13.8302 11.3406 10.6366 10.6286 10.5524 10.5357 10.2537 10.1338 10.1009 10.0704
threshold=1.0000000180025095e-35 1.0000000180025095e-35 1.0000000180025095e-35 1.0000000180025095e-35 1.0000000180025095e-35 1.0000000180025095e-35 1.0000000180025095e-35 1.0000000180025095e-35 1.0000000180025095e-35 1.0000000180025095e-35 1.0000000180025095e-35 1.0000000180025095e-35 1.0000000180025095e-35 1.0000000180025095e-35 1.0000000180025095e-35 1.0000000180025095e-35 1.0000000180025095e-35 1.0000000180025095e-35 1.0000000180025095e-35 1.5000000000000002 1.0000000180025095e-35 99.968423629582716 0.69183680415153515 0.35350890457630163 0.09425207227468492 5.5000000000000009 1.0000000180025095e-35 1.5000000000000002 1.0000000180025095e-35 1.0000000180025095e-35
decision_type=2 2 2 2 2 2 2 2 2 2 2 2 2 2 2 2 2 2 2 2 2 2 2 2 2 2 2 2 2 2
left_child=1 2 3 4 5 6 8 26 -1 -10 -11 12 13 14 20 -5 18 -18 -3 -8 -9 -16 24 -22 -15 -24 -4 -6 -20 -7
right_child=-2 16 7 15 27 29 19 11 9 10 -12 -13 -14 22 21 -17 17 -19 28 -21 23 -23 25 -25 -26 -27 -28 -29 -30 -31
leaf_value=0.014472102001618073 -0.04081951919785045 -0.031248892780287273 -0.022519958719369435 -0.017211346890775997 -0.0084311366239158258 0.046194174444812955 0.0080497357656435405 0.0039657092966977172 -0.017635859526957388 0.030162006727835072 0.035228583883021899 -0.040409183163935151 -0.02322752556588981 -0.019961323997132678 0.0170169795551725 -0.0025606504228866708 0.01678114938880175 -0.027025993082421092 -0.025916431103414066 -0.013948807585555098 -0.021826048233486658 0.0063200851995506889 -0.027244764838727543 0.023175778922283414 0.0026877093647440461 -0.0048848458172362939 -0.010180533930126105 -0.031718461968873762 -0.020522996367389006 0.0097811941116480051
leaf_weight=251.99568220973015 4722.3689360320568 334.36770264804363 288.31241711974144 150.27714970707893 104.56541220843792 961.40031695365906 139.3925972878933 68.669791147112846 17.123420640826225 3501.4908784776926 2644.4437377899885 17.458919510245323 39.216145247220993 22.397781312465668 140.13705193996429 138.84240777790546 46.073759108781815 141.12082447111607 750.70690588653088 31.747657164931297 43.429223954677582 245.40462817251682 35.729124218225479 5.299842655658721 106.76386956870556 40.421932682394981 76.740298360586166 20.041375234723091 535.39692498743534 6.8845748007297507
leaf_count=1011 24026 1590 1310 663 447 4120 561 287 72 14270 10884 76 178 94 562 577 188 650 3463 138 187 989 152 22 445 171 327 90 2421 29
internal_value=0 0.0176092 0.0259367 0.030473 0.0320035 0.0327322 0.0307911 -0.00605188 0.0315067 0.0322032 0.032342 0.000569375 0.00152653 0.00289716 0.00672635 -0.0101757 -0.0243037 -0.0162438 -0.0252348 0.00396886 -0.00470819 0.0102082 -0.00648292 -0.0169316 -0.00123983 -0.0153758 -0.019926 -0.0121766 -0.0236712 0.0459353
internal_weight=0 10905.9 9098.19 7968.21 7679.09 7554.48 6586.19 1129.98 6415.05 6163.06 6145.93 764.928 747.469 708.253 502.941 289.12 1807.67 187.195 1620.47 171.14 117.399 385.542 205.313 48.7291 129.162 76.1511 365.053 124.607 1286.1 968.285
internal_count=70000 45974 37662 32862 31622 31085 26936 4800 26237 25226 25154 3163 3087 2909 2047 1240 8312 838 7474 699 496 1551 862 209 539 323 1637 537 5884 4149
shrinkage=0.03


Tree=16
num_leaves=31
num_cat=0
split_feature=26 17 29 20 7 28 6 20 18 3 14 7 1 6 2 3 2 28 7 27 6 15 11 40 49 43 44 5 1 12
split_gain=11947.5 4003.56 1390.38 521.988 260.266 211.615 133.618 109.442 81.1075 45.8613 41.8564 31.7191 28.9535 26.6998 26.608 20.92 16.3526 14.4744 70.3854 16.5766 13.1023 13.0805 10.7051 10.0669 10.046 10.0347 9.97037 9.85541 9.80205 9.80045
threshold=1.0000000180025095e-35 1.0000000180025095e-35 1.0000000180025095e-35 1.0000000180025095e-35 1.0000000180025095e-35 1.0000000180025095e-35 1.0000000180025095e-35 1.0000000180025095e-35 1.0000000180025095e-35 1.0000000180025095e-35 1.0000000180025095e-35 1.0000000180025095e-35 19.500000000000004 1.0000000180025095e-35 1.0000000180025095e-35 1.0000000180025095e-35 1.0000000180025095e-35 1.0000000180025095e-35 1.0000000180025095e-35 1.0000000180025095e-35 1.5000000000000002 1.0000000180025095e-35 1.0000000180025095e-35 0.69183680415153515 0.35350890457630163 5.5000000000000009 0.09425207227468492 1.0000000180025095e-35 12.500000000000002 1.0000000180025095e-35
decision_type=2 2 2 2 2 2 2 2 2 2 2 2 2 2 2 2 2 2 2 2 2 2 2 2 2 2 2 2 2 2
left_child=1 2 3 4 5 6 8 27 -1 12 -11 13 -10 14 15 21 -5 19 -19 -3 -8 -9 -17 26 -23 -25 -16 -4 -24 -21
right_child=-2 17 7 16 -6 -7 20 11 9 10 -12 -13 -14 -15 23 22 -18 18 -20 29 -22 24 28 25 -26 -27 -28 -29 -30 -31
leaf_value=0.014035443998126394 -0.040374314731726417 -0.0307032484826141 -0.022020311141820608 -0.016785528730943921 -0.011853666177107059 0.04511916373320906 0.0078033889455304956 0.0038435642125841264 0.015302121043334877 0.032648482815759099 0.012709797539077257 -0.039653489276044292 0.028526063642659489 -0.022716992088463575 -0.019448708673768612 0.011910651572630698 -0.0024849759220321012 0.016241300011414543 -0.026481637812177154 -0.025384850575066772 -0.01358427730624396 -0.021298962627603397 -0.040628108424190637 -0.026611110389768405 0.02238296108323358 -0.0047438038681988101 0.0026056779394009822 -0.0099006525777537296 0.0017885038148806182 -0.02005062482606506
leaf_weight=252.03971847891808 4632.5672425925732 330.16456857323647 286.043351739645 149.47894781827927 124.17227251827717 956.40535566210747 139.47799694538116 68.725629240274429 229.24592320621014 5380.0957024246454 96.455729186534882 17.260892644524574 425.76046675443649 38.899391204118729 22.299978852272034 331.85870864987373 138.77940325438976 46.175470590591431 139.72238399088383 743.54388798773289 31.62351430952549 43.172768831253052 5.4558257907629004 35.486199840903282 5.3225826025009146 40.375749930739403 106.82039907574654 76.545378461480141 48.415645569562912 531.62766252458096
leaf_count=1011 24026 1590 1310 663 537 4149 561 287 933 22158 394 76 1741 178 94 1330 577 188 650 3463 138 187 24 152 22 171 445 327 197 2421
internal_value=0 0.0171838 0.0252943 0.0297284 0.0312245 0.0319367 0.0300132 -0.00588865 0.0307144 0.0314 0.0322973 0.000552258 0.0238978 0.0014815 0.00281115 0.00652417 -0.00990066 -0.0237945 -0.0158696 -0.0247122 0.00385045 -0.00457468 0.00989704 -0.00629922 -0.0165047 -0.0149727 -0.00120327 -0.0194618 -0.00250723 -0.023161
internal_weight=0 10841.5 9050.22 7923.54 7635.28 7511.1 6554.7 1126.68 6383.6 6131.56 5476.55 764.094 655.006 746.833 707.933 502.951 288.258 1791.23 185.898 1605.34 171.102 117.221 385.73 204.982 48.4954 75.8619 129.12 362.589 53.8715 1275.17
internal_count=70000 45974 37662 32862 31622 31085 26936 4800 26237 25226 22552 3163 2674 3087 2909 2047 1240 8312 838 7474 699 496 1551 862 209 323 539 1637 221 5884
shrinkage=0.03


Tree=17
num_leaves=31
num_cat=0
split_feature=26 17 29 20 7 28 6 20 18 27 12 7 12 2 2 29 6 3 6 11 6 7 28 3 15 35 8 34 15 46
split_gain=11424 3790.84 1318.41 494.951 246.742 208.53 127.197 103.845 77.847 44.9436 42.0763 30.1956 25.4211 15.5366 15.4931 13.9509 13.3906 14.0636 12.3469 11.7725 9.91019 9.76203 10.0146 9.5958 9.58591 9.86304 11.2426 9.5654 9.52639 9.52212
threshold=1.0000000180025095e-35 1.0000000180025095e-35 1.0000000180025095e-35 1.0000000180025095e-35 1.0000000180025095e-35 1.0000000180025095e-35 1.0000000180025095e-35 1.0000000180025095e-35 1.0000000180025095e-35 1.0000000180025095e-35 1.0000000180025095e-35 1.0000000180025095e-35 1.0000000180025095e-35 1.0000000180025095e-35 1.0000000180025095e-35 1.0000000180025095e-35 1.0000000180025095e-35 1.0000000180025095e-35 1.5000000000000002 1.0000000180025095e-35 1.0000000180025095e-35 1.5000000000000002 1.0000000180025095e-35 1.0000000180025095e-35 1.0000000180025095e-35 0.1521091163158417 1.0000000180025095e-35 99.999942098594943 1.0000000180025095e-35 0.53463977575302135
decision_type=2 2 2 2 2 2 2 2 2 2 2 2 2 2 2 2 2 2 2 2 2 2 2 2 2 2 2 2 2 2
left_child=1 2 3 4 5 6 8 -4 23 -10 -11 12 14 -5 16 19 17 28 -8 -3 -7 22 -6 -1 -15 -26 -27 -14 -9 -20
right_child=-2 15 7 13 21 20 18 11 9 10 -12 -13 27 24 -16 -17 -18 -19 29 -21 -22 -23 -24 -25 25 26 -28 -29 -30 -31
leaf_value=0.002260760443054862 -0.039951113061297241 -0.020732776215889391 -0.019008732074872508 -0.016370198233099608 -0.023788653121460598 0.044611544066339312 0.0075649631898365589 0.0060790373927957653 -0.017864203908561974 0.028598157486401439 0.033639377830452052 -0.038931733515369847 0.010697377628692032 0.002952860520366524 -0.0096285388831708948 -0.029291824724833951 -0.019695497010658237 0.0068399204683077348 0.0071895175344781435 -0.027277496250544115 0.0082515653152776067 -0.030872380310303059 -0.0024236639750009623 0.016631458948819809 -0.026270809732750488 -0.012686021231205775 0.038118364402059582 -0.019149039377159741 -0.016090060394341101 -0.026553053054175959
leaf_weight=52.935691803693771 4542.5528880655766 1169.0988052338362 360.1338584125042 148.68544855713844 26.492556810379028 937.19885170459747 139.55653341114521 27.321918234229088 17.154088109731674 3469.2178623974323 2611.9437665045261 17.056562945246696 231.12904080748558 94.837186694145203 174.25577516853809 291.97289474308491 24.974504217505455 230.06066954135895 12.438633292913439 313.74190735816956 6.7953958064317694 19.748218804597855 77.532930314540863 199.12173676490784 25.16538505256176 13.125692322850229 5.5896129906177512 10.08580721914768 48.258184358477592 19.061758667230606
leaf_count=214 24026 5395 1637 663 116 4120 561 114 72 14270 10884 76 942 386 738 1429 116 927 53 1488 29 90 331 797 110 57 24 41 209 85
internal_value=0 0.0167731 0.0246752 0.0290114 0.0304748 0.0311713 0.0292637 -0.00573046 0.0299514 0.0306266 0.0307634 0.000535675 0.00143795 -0.00963291 -0.00238973 -0.0232978 0.0014256 0.00315145 0.00373571 -0.0221175 0.0443498 -0.0115357 -0.00786477 0.0136134 -0.00241151 -0.0140053 0.00248749 0.00944942 -0.00807602 -0.013229
internal_weight=0 10774.7 8999.88 7876.6 7589.2 7465.42 6521.43 1123.28 6350.37 6098.32 6081.16 763.142 746.086 287.403 504.871 1774.81 330.615 305.641 171.057 1482.84 943.994 123.774 104.025 252.057 138.718 43.8807 18.7153 241.215 75.5801 31.5004
internal_count=70000 45974 37662 32862 31622 31085 26936 4800 26237 25226 25154 3163 3087 1240 2104 8312 1366 1250 699 6883 4149 537 447 1011 577 191 81 983 323 138
shrinkage=0.03


Tree=18
num_leaves=31
num_cat=0
split_feature=26 17 29 20 7 28 6 20 18 3 12 7 1 6 3 2 2 28 7 27 6 34 32 6 32 5 39 9 35 52
split_gain=10927.9 3590.28 1251.17 469.544 234.025 205.747 121.167 98.5178 74.7335 44.2979 40.4931 28.7583 27.6602 24.4192 23.8631 19.9475 14.7507 13.9675 67.4762 16.002 11.6406 10.5132 9.63702 9.62112 9.60964 9.58667 9.5704 9.55198 9.49939 9.49701
threshold=1.0000000180025095e-35 1.0000000180025095e-35 1.0000000180025095e-35 1.0000000180025095e-35 1.0000000180025095e-35 1.0000000180025095e-35 1.0000000180025095e-35 1.0000000180025095e-35 1.0000000180025095e-35 1.0000000180025095e-35 1.0000000180025095e-35 1.0000000180025095e-35 19.500000000000004 1.0000000180025095e-35 1.0000000180025095e-35 1.0000000180025095e-35 1.0000000180025095e-35 1.0000000180025095e-35 1.0000000180025095e-35 1.0000000180025095e-35 1.5000000000000002 99.968423629582716 166.61609649658206 1.0000000180025095e-35 185.00662231445315 1.0000000180025095e-35 12.663820743560793 1.5000000000000002 0.0063982466235756883 0.59504321217536937
decision_type=2 2 2 2 2 2 2 2 2 2 2 2 2 2 2 2 2 2 2 2 2 2 2 2 2 2 2 2 2 2
left_child=1 2 3 4 5 6 8 25 -1 12 -11 13 -10 14 24 21 -5 19 22 -3 29 28 -19 -7 -9 -4 -27 -6 -16 -8
right_child=-2 17 7 16 27 23 20 11 9 10 -12 -13 -14 -15 15 -17 -18 18 -20 -21 -22 -23 -24 -25 -26 26 -28 -29 -30 -31
leaf_value=0.013209574482286388 -0.039548447754637818 -0.029684018698242491 -0.021112086365967758 -0.015964979354761565 0.018549583306899344 0.043885571327037833 0.01212235206469865 0.0048015066191270453 0.014058662877172673 0.028472409377183282 0.033699544470707388 -0.038241122126168113 0.027031154369545576 -0.021910325103405966 -0.0070933634625525753 -0.0033191831744509722 -0.0023425773763596602 0.049019294306635819 -0.02552504443152652 -0.022186157089597279 -0.01289279551784302 0.0056171559085498278 0.010648674470272309 0.0080209598460439929 -0.01169722341133449 -0.012233324632533123 0.027129932013464492 -0.013572360512099712 0.018561124857409701 -0.0054503244458827703
leaf_weight=251.9719014018774 4452.5012999475002 321.973991766572 281.79504215717316 147.89763987064362 8.9865109324455243 924.31606709957123 101.58275806903839 43.083973810076714 227.83863730728626 3031.7602740377188 2381.5939499884844 16.84683632850647 421.76782166957855 38.379608958959579 14.486275717616079 157.20644021034241 138.56613366305828 6.9325828552246085 137.17404210567474 1253.6164450496435 31.35751973092556 245.69884234666824 39.208455041050911 6.7812611460685721 121.01441635191441 69.935564532876015 6.0389358997344962 114.33821931481361 125.77004727721214 38.045916751027107
leaf_count=1011 24026 1590 1310 663 37 4120 408 181 933 12547 10005 76 1741 178 58 660 577 28 650 5884 138 989 160 29 517 301 26 500 504 153
internal_value=0 0.016376 0.0240789 0.0283232 0.0297554 0.0304369 0.0285437 -0.00557444 0.0292185 0.0298838 0.0307721 0.000519606 0.0224813 0.00139536 0.00266005 0.00568893 -0.00937565 -0.0228065 -0.0149689 -0.0237184 0.0036247 0.0093581 0.0164138 0.0436244 -0.00736549 -0.0185622 -0.00910448 -0.0112317 0.0159114 0.00733416
internal_weight=0 10706 8947.06 7826.8 7540.34 7417.02 6485.92 1120.26 6314.93 6062.96 5413.35 762.486 649.606 745.64 707.26 543.162 286.464 1758.91 183.315 1575.59 170.986 385.955 46.141 931.097 164.098 357.77 75.9745 123.325 140.256 139.629
internal_count=70000 45974 37662 32862 31622 31085 26936 4800 26237 25226 22552 3163 2674 3087 2909 2211 1240 8312 838 7474 699 1551 188 4149 698 1637 327 537 562 561
shrinkage=0.03


Tree=19
num_leaves=31
num_cat=0
split_feature=26 17 29 20 7 28 6 20 18 27 12 7 12 7 3 6 28 7 27 2 2 48 32 44 12 7 28 6 38 35
split_gain=10457.4 3401.29 1187.71 445.698 222.074 203.283 115.497 93.487 71.8524 42.6663 39.719 27.4015 23.4254 14.4633 14.0207 13.4239 13.405 64.125 15.6888 13.1306 12.1941 11.0959 10.7338 10.131 9.5798 9.39748 9.53731 9.35505 9.22024 13.1257
threshold=1.0000000180025095e-35 1.0000000180025095e-35 1.0000000180025095e-35 1.0000000180025095e-35 1.0000000180025095e-35 1.0000000180025095e-35 1.0000000180025095e-35 1.0000000180025095e-35 1.0000000180025095e-35 1.0000000180025095e-35 1.0000000180025095e-35 1.0000000180025095e-35 1.0000000180025095e-35 1.0000000180025095e-35 1.0000000180025095e-35 1.0000000180025095e-35 1.0000000180025095e-35 1.0000000180025095e-35 1.0000000180025095e-35 1.0000000180025095e-35 1.0000000180025095e-35 0.2571308314800263 163.98712158203128 0.10084928199648859 1.0000000180025095e-35 1.5000000000000002 1.0000000180025095e-35 1.0000000180025095e-35 0.68326953053474437 0.040479918941855438
decision_type=2 2 2 2 2 2 2 2 2 2 2 2 2 2 2 2 2 2 2 2 2 2 2 2 2 2 2 2 2 2
left_child=1 2 3 4 5 6 8 -4 -1 -10 -11 12 14 20 22 19 18 -18 -3 -16 -5 -8 -9 -21 -20 26 -6 -7 -14 -30
right_child=-2 16 7 13 25 27 21 11 9 10 -12 -13 28 -15 15 -17 17 -19 24 23 -22 -23 -24 -25 -26 -27 -28 -29 29 -31
leaf_value=0.012814750805231792 -0.039164985630046126 -0.029179278185268769 -0.018130473071431719 -0.013699176130378873 -0.022975685415602246 0.04319975100581018 -0.005927794086328278 0.0099165172722325331 -0.018046330020475385 0.027190355813031353 0.032119154386829413 -0.037579137336394203 0.015243786660084961 -0.033122969402833949 0.0063519242342566264 -0.019527921859691169 0.015891795819491898 -0.025017341117250631 -0.023942286568568009 -0.020629832630635878 -0.00082054370715357373 0.0097029467990052826 -0.01460168457989823 -0.0007091771922882595 -0.018602479822704181 -0.030067343443753135 -0.002031308802608624 0.0077965791686714159 0.018822280520990952 -0.0025495429268745924
leaf_weight=251.94351534545422 4362.572869092226 317.7809910774231 355.34247580170631 131.58375817537308 26.205244511365891 911.02152109146118 67.644736468791962 18.879256084561348 17.177247598767281 3434.2582950443029 2574.6853253990412 16.632549047470093 113.86345510184765 20.940037161111832 230.2372584939003 27.693697482347488 46.224937811493874 135.78040732443333 723.226886048913 31.128480181097984 133.10019594430923 103.28054136037827 108.00101481378078 87.737777650356293 519.63014361262321 19.445910453796387 77.249622046947479 6.7673434168100348 36.068694412708282 91.407225728034973
leaf_count=1011 24026 1590 1637 593 116 4120 278 80 72 14270 10884 76 464 93 927 130 188 650 3463 132 554 421 467 368 2421 90 331 29 147 372
internal_value=0 0.0159925 0.0235031 0.0276587 0.0290613 0.0297286 0.0278486 -0.00542397 0.028511 0.0291673 0.0293022 0.000504161 0.00135437 -0.00912178 -0.00232793 0.000576576 -0.0223322 -0.0146274 -0.0232307 0.00217143 -0.00722297 0.00351698 -0.0109535 -0.00592596 -0.0217097 -0.0109331 -0.00733655 0.0429387 0.00903938 0.00349751
internal_weight=0 10634.9 8892.3 7775.3 7489.68 7366.78 6448.99 1116.99 6278.06 6026.12 6008.94 761.649 745.017 285.624 503.677 376.797 1742.64 182.005 1560.64 349.104 264.684 170.925 126.88 118.866 1242.86 122.901 103.455 917.789 241.339 127.476
internal_count=70000 45974 37662 32862 31622 31085 26936 4800 26237 25226 25154 3163 3087 1240 2104 1557 8312 838 7474 1427 1147 699 547 500 5884 537 447 4149 983 519
shrinkage=0.03


end of trees

feature_importances:
hist_user_behavior_n_seekfwd=65
hist_user_behavior_n_seekback=53
no_pause_before_play=43
context_switch=42
hist_user_behavior_reason_end_backbtn=41
hist_user_behavior_reason_start_clickrow=40
hist_user_behavior_reason_end_endplay=32
context_type_user_collection=27
context_type_catalog=24
hist_user_behavior_reason_end_fwdbtn=23
context_type_editorial_playlist=20
hist_user_behavior_reason_start_trackdone=20
hist_user_behavior_reason_start_fwdbtn=20
hist_user_behavior_reason_end_trackdone=20
long_pause_before_play=18
session_length=14
duration=13
hour_of_day=11
energy=11
acousticness=8
us_popularity_estimate=7
speechiness=7
tempo=7
liveness=5
mechanism=5
key=4
session_position=3
release_year=3
loudness=3
context_type_radio=2
context_type_personalized_playlist=2
organism=2
valence=2
hist_user_behavior_is_shuffle=1
danceability=1
dyn_range_mean=1

parameters:
[boosting: gbdt]
[objective: binary]
[metric: binary_logloss]
[tree_learner: serial]
[device_type: cpu]
[data: ]
[valid: ]
[num_iterations: 20]
[learning_rate: 0.03]
[num_leaves: 31]
[num_threads: 0]
[deterministic: 0]
[force_col_wise: 0]
[force_row_wise: 0]
[histogram_pool_size: -1]
[max_depth: 10]
[min_data_in_leaf: 20]
[min_sum_hessian_in_leaf: 0.001]
[bagging_fraction: 1]
[pos_bagging_fraction: 1]
[neg_bagging_fraction: 1]
[bagging_freq: 0]
[bagging_seed: 3]
[feature_fraction: 1]
[feature_fraction_bynode: 1]
[feature_fraction_seed: 2]
[extra_trees: 0]
[extra_seed: 6]
[early_stopping_round: 5]
[first_metric_only: 0]
[max_delta_step: 0]
[lambda_l1: 0]
[lambda_l2: 0]
[min_gain_to_split: 0]
[drop_rate: 0.1]
[max_drop: 50]
[skip_drop: 0.5]
[xgboost_dart_mode: 0]
[uniform_drop: 0]
[drop_seed: 4]
[top_rate: 0.2]
[other_rate: 0.1]
[min_data_per_group: 100]
[max_cat_threshold: 32]
[cat_l2: 10]
[cat_smooth: 10]
[max_cat_to_onehot: 4]
[top_k: 20]
[monotone_constraints: ]
[monotone_constraints_method: basic]
[monotone_penalty: 0]
[feature_contri: ]
[forcedsplits_filename: ]
[refit_decay_rate: 0.9]
[cegb_tradeoff: 1]
[cegb_penalty_split: 0]
[cegb_penalty_feature_lazy: ]
[cegb_penalty_feature_coupled: ]
[path_smooth: 0]
[interaction_constraints: ]
[verbosity: 1]
[saved_feature_importance_type: 0]
[max_bin: 255]
[max_bin_by_feature: ]
[min_data_in_bin: 3]
[bin_construct_sample_cnt: 200000]
[data_random_seed: 1]
[is_enable_sparse: 1]
[enable_bundle: 1]
[use_missing: 1]
[zero_as_missing: 0]
[feature_pre_filter: 1]
[pre_partition: 0]
[two_round: 0]
[header: 0]
[label_column: ]
[weight_column: ]
[group_column: ]
[ignore_column: ]
[categorical_feature: ]
[forcedbins_filename: ]
[objective_seed: 5]
[num_class: 1]
[is_unbalance: 0]
[scale_pos_weight: 1]
[sigmoid: 1]
[boost_from_average: 1]
[reg_sqrt: 0]
[alpha: 0.9]
[fair_c: 1]
[poisson_max_delta_step: 0.7]
[tweedie_variance_power: 1.5]
[lambdarank_truncation_level: 30]
[lambdarank_norm: 1]
[label_gain: ]
[eval_at: ]
[multi_error_top_k: 1]
[auc_mu_weights: ]
[num_machines: 1]
[local_listen_port: 12400]
[time_out: 120]
[machine_list_filename: ]
[machines: ]
[gpu_platform_id: -1]
[gpu_device_id: -1]
[gpu_use_dp: 0]
[num_gpu: 1]

end of parameters

pandas_categorical:[]
